booster[0]:
0:[f1<0.0287999995] yes=1,no=2,missing=2
	1:[f4<0.156200007] yes=3,no=4,missing=4
		3:[f0<0.971400023] yes=7,no=8,missing=8
			7:[f4<0.0860000029] yes=15,no=16,missing=16
				15:leaf=-0.597966135
				16:[f2<0.239999995] yes=29,no=30,missing=30
					29:leaf=-0.458823562
					30:leaf=0.300000012
			8:[f20<0.130760163] yes=17,no=18,missing=18
				17:leaf=-0.400000036
				18:[f10<0.0110577373] yes=31,no=32,missing=32
					31:leaf=0.536842108
					32:leaf=-0.300000012
		4:[f14<0.0224401951] yes=9,no=10,missing=10
			9:[f1<0.0245999992] yes=19,no=20,missing=20
				19:leaf=-0.584615409
				20:leaf=-0.150000006
			10:[f21<0.170478195] yes=21,no=22,missing=22
				21:[f15<0.029796863] yes=33,no=34,missing=34
					33:leaf=0.563636363
					34:leaf=-0.0666666701
				22:[f12<0.0232269112] yes=35,no=36,missing=36
					35:leaf=0.400000036
					36:leaf=-0.466666698
	2:[f11<0.0174941607] yes=5,no=6,missing=6
		5:[f4<0.00300000003] yes=11,no=12,missing=12
			11:[f21<0.117162675] yes=23,no=24,missing=24
				23:[f3<0.183400005] yes=37,no=38,missing=38
					37:leaf=-0.570370436
					38:leaf=-0
				24:[f32<0.00552030187] yes=39,no=40,missing=40
					39:leaf=0.360000014
					40:leaf=-0.314285755
			12:leaf=0.487500012
		6:[f8<0.0270000007] yes=13,no=14,missing=14
			13:[f3<0.186800003] yes=25,no=26,missing=26
				25:[f1<0.165399998] yes=41,no=42,missing=42
					41:leaf=-0.0739726052
					42:leaf=0.477272749
				26:[f23<0.0631132275] yes=43,no=44,missing=44
					43:leaf=-0.230769247
					44:leaf=0.570178926
			14:[f40<114] yes=27,no=28,missing=28
				27:[f1<0.0460000001] yes=45,no=46,missing=46
					45:leaf=-0
					46:leaf=-0.520000041
				28:leaf=0.381818205
booster[1]:
0:[f1<0.0287999995] yes=1,no=2,missing=2
	1:[f4<0.156200007] yes=3,no=4,missing=4
		3:[f0<0.971400023] yes=7,no=8,missing=8
			7:[f4<0.0860000029] yes=15,no=16,missing=16
				15:leaf=-0.463257879
				16:[f2<0.0843999982] yes=29,no=30,missing=30
					29:leaf=-0.353990018
					30:leaf=0.113484077
			8:[f20<0.130760163] yes=17,no=18,missing=18
				17:leaf=-0.329610318
				18:[f10<0.0108188689] yes=31,no=32,missing=32
					31:leaf=0.414052188
					32:leaf=0.0135950707
		4:[f14<0.0224401951] yes=9,no=10,missing=10
			9:[f0<0.00939999986] yes=19,no=20,missing=20
				19:leaf=-0.456028312
				20:leaf=-0.123727746
			10:[f38<21.9723396] yes=21,no=22,missing=22
				21:[f8<0.0299999993] yes=33,no=34,missing=34
					33:leaf=-0.357046455
					34:leaf=0.0439244583
				22:[f14<0.0259352382] yes=35,no=36,missing=36
					35:leaf=0.0559046715
					36:leaf=0.441845506
	2:[f11<0.0159539934] yes=5,no=6,missing=6
		5:[f4<0.0143999998] yes=11,no=12,missing=12
			11:[f2<0.00039999999] yes=23,no=24,missing=24
				23:leaf=-0.0468055643
				24:leaf=-0.443133861
			12:leaf=0.371632665
		6:[f8<0.0274] yes=13,no=14,missing=14
			13:[f2<0.00340000005] yes=25,no=26,missing=26
				25:[f30<0.0247179568] yes=37,no=38,missing=38
					37:leaf=0.0913217887
					38:leaf=-0.349244893
				26:[f4<0.386200011] yes=39,no=40,missing=40
					39:leaf=0.403386474
					40:leaf=-0.36411643
			14:[f40<114] yes=27,no=28,missing=28
				27:leaf=-0.419647783
				28:leaf=0.316975057
booster[2]:
0:[f37<0.0294352062] yes=1,no=2,missing=2
	1:[f20<0.130760163] yes=3,no=4,missing=4
		3:[f13<0.027922716] yes=7,no=8,missing=8
			7:leaf=-0.40239048
			8:leaf=-0.0978057757
		4:[f30<0.0109651824] yes=9,no=10,missing=10
			9:leaf=0.296943694
			10:leaf=0.070282124
	2:[f3<0.114] yes=5,no=6,missing=6
		5:[f0<0.0856000036] yes=11,no=12,missing=12
			11:[f2<0.248400003] yes=15,no=16,missing=16
				15:[f39<2.11894512] yes=21,no=22,missing=22
					21:leaf=0.144156858
					22:leaf=-0.410384744
				16:[f22<0.0830040053] yes=23,no=24,missing=24
					23:leaf=-0.454085857
					24:leaf=0.371161163
			12:[f40<5] yes=17,no=18,missing=18
				17:[f20<1.01784635] yes=25,no=26,missing=26
					25:leaf=0.307965398
					26:leaf=-0.405855805
				18:leaf=-0.392431736
		6:[f23<0.0553938895] yes=13,no=14,missing=14
			13:leaf=-0.419574052
			14:[f8<0.0370000005] yes=19,no=20,missing=20
				19:[f0<0.0791999996] yes=27,no=28,missing=28
					27:leaf=0.364566505
					28:leaf=-0.387160808
				20:[f40<114] yes=29,no=30,missing=30
					29:leaf=-0.400842458
					30:leaf=0.238375381
booster[3]:
0:[f37<0.0242233239] yes=1,no=2,missing=2
	1:[f20<0.130760163] yes=3,no=4,missing=4
		3:leaf=-0.367630303
		4:leaf=0.234921232
	2:[f3<0.101400003] yes=5,no=6,missing=6
		5:[f0<0.0957999974] yes=7,no=8,missing=8
			7:[f2<0.288199991] yes=11,no=12,missing=12
				11:[f39<2.1017313] yes=19,no=20,missing=20
					19:leaf=0.0504798107
					20:leaf=-0.369786829
				12:[f22<0.0845956579] yes=21,no=22,missing=22
					21:leaf=-0.401775867
					22:leaf=0.34892112
			8:[f40<3] yes=13,no=14,missing=14
				13:[f21<0.144862428] yes=23,no=24,missing=24
					23:leaf=0.00445892662
					24:leaf=0.323863864
				14:[f5<0.00039999999] yes=25,no=26,missing=26
					25:leaf=-0.352116734
					26:leaf=-0.0510364957
		6:[f23<0.0663091615] yes=9,no=10,missing=10
			9:[f2<0.183400005] yes=15,no=16,missing=16
				15:leaf=-0.410095394
				16:leaf=0.153188139
			10:[f8<0.00240000011] yes=17,no=18,missing=18
				17:[f12<0.0166390277] yes=27,no=28,missing=28
					27:leaf=-0.19387956
					28:leaf=0.362451792
				18:[f4<0.157600001] yes=29,no=30,missing=30
					29:leaf=-0.586683214
					30:leaf=0.240384951
booster[4]:
0:[f37<0.0242233239] yes=1,no=2,missing=2
	1:[f20<0.130760163] yes=3,no=4,missing=4
		3:leaf=-0.34561637
		4:leaf=0.211058185
	2:[f3<0.162200004] yes=5,no=6,missing=6
		5:[f1<0.165399998] yes=7,no=8,missing=8
			7:[f10<0.0110577373] yes=11,no=12,missing=12
				11:[f3<0.0653999969] yes=19,no=20,missing=20
					19:leaf=-0.11840611
					20:leaf=0.249733374
				12:[f37<0.151442319] yes=21,no=22,missing=22
					21:leaf=-0.36128819
					22:leaf=0.00256955624
			8:[f11<0.018913025] yes=13,no=14,missing=14
				13:[f1<0.662999988] yes=23,no=24,missing=24
					23:leaf=0.162343413
					24:leaf=-0.29467845
				14:[f21<0.166281328] yes=25,no=26,missing=26
					25:leaf=0.29869014
					26:leaf=-0.000138117481
		6:[f23<0.0694736615] yes=9,no=10,missing=10
			9:[f16<0.026595518] yes=15,no=16,missing=16
				15:[f2<0.5704] yes=27,no=28,missing=28
					27:leaf=-0.400131166
					28:leaf=0.207721382
				16:[f30<0.0307040326] yes=29,no=30,missing=30
					29:leaf=0.2460417
					30:leaf=-0.172163308
			10:[f7<0.0199999996] yes=17,no=18,missing=18
				17:[f3<0.185200006] yes=31,no=32,missing=32
					31:leaf=0.0412209928
					32:leaf=0.343646824
				18:[f5<0.133200005] yes=33,no=34,missing=34
					33:leaf=-0.368773073
					34:leaf=0.266872555
booster[5]:
0:[f37<0.0242233239] yes=1,no=2,missing=2
	1:[f20<0.130760163] yes=3,no=4,missing=4
		3:leaf=-0.330748916
		4:leaf=0.191065252
	2:[f3<0.162200004] yes=5,no=6,missing=6
		5:[f37<0.04441645] yes=7,no=8,missing=8
			7:[f2<0.00300000003] yes=11,no=12,missing=12
				11:[f30<0.0143490424] yes=19,no=20,missing=20
					19:leaf=0.330794096
					20:leaf=-0.217073262
				12:[f2<0.0379999988] yes=21,no=22,missing=22
					21:leaf=0.278353125
					22:leaf=-0.231928438
			8:[f1<0.159999996] yes=13,no=14,missing=14
				13:[f34<6.53625441] yes=23,no=24,missing=24
					23:leaf=-0.288667619
					24:leaf=0.132179007
				14:[f1<0.865199983] yes=25,no=26,missing=26
					25:leaf=0.0904947966
					26:leaf=-0.338553429
		6:[f40<5] yes=9,no=10,missing=10
			9:[f38<979186304] yes=15,no=16,missing=16
				15:[f32<0.0272938646] yes=27,no=28,missing=28
					27:leaf=-0.49475354
					28:leaf=0.0293647088
				16:[f2<0.205799997] yes=29,no=30,missing=30
					29:leaf=-0.206449062
					30:leaf=0.28351602
			10:[f2<0.00800000038] yes=17,no=18,missing=18
				17:leaf=-0.335561275
				18:[f21<0.203915566] yes=31,no=32,missing=32
					31:leaf=0.294964135
					32:leaf=-0.148084044
booster[6]:
0:[f37<0.0202975776] yes=1,no=2,missing=2
	1:[f35<0.101499327] yes=3,no=4,missing=4
		3:leaf=-0.319809794
		4:leaf=-0.0892600194
	2:[f3<0.103799999] yes=5,no=6,missing=6
		5:[f0<0.0856000036] yes=7,no=8,missing=8
			7:[f39<1.9388994] yes=11,no=12,missing=12
				11:leaf=0.216002092
				12:[f2<0.248400003] yes=19,no=20,missing=20
					19:leaf=-0.299698979
					20:leaf=-0.00587141654
			8:[f40<5] yes=13,no=14,missing=14
				13:[f10<0.0143456217] yes=21,no=22,missing=22
					21:leaf=0.239511207
					22:leaf=-0.0373928919
				14:leaf=-0.298186541
		6:[f40<16] yes=9,no=10,missing=10
			9:[f18<0.0154291391] yes=15,no=16,missing=16
				15:[f23<0.0713438392] yes=23,no=24,missing=24
					23:leaf=-0.157175452
					24:leaf=0.286514014
				16:[f4<0.188600004] yes=25,no=26,missing=26
					25:leaf=-0.420445114
					26:leaf=-0.0401674621
			10:[f2<0.00359999994] yes=17,no=18,missing=18
				17:leaf=-0.285910964
				18:[f37<0.09992484] yes=27,no=28,missing=28
					27:leaf=0.302184612
					28:leaf=0.0750249028
booster[7]:
0:[f37<0.0242233239] yes=1,no=2,missing=2
	1:[f0<0.998000026] yes=3,no=4,missing=4
		3:leaf=-0.31243974
		4:leaf=0.119550921
	2:[f3<0.185200006] yes=5,no=6,missing=6
		5:[f38<617863808] yes=7,no=8,missing=8
			7:[f8<0.0127999997] yes=11,no=12,missing=12
				11:[f32<0.027828658] yes=19,no=20,missing=20
					19:leaf=-0.383324564
					20:leaf=-0.0816321298
				12:[f5<0.196600005] yes=21,no=22,missing=22
					21:leaf=-0.211997807
					22:leaf=0.243850648
			8:[f3<0.0653999969] yes=13,no=14,missing=14
				13:[f40<3] yes=23,no=24,missing=24
					23:leaf=0.0589477941
					24:leaf=-0.266110003
				14:[f32<0.0122342519] yes=25,no=26,missing=26
					25:leaf=-0.145140275
					26:leaf=0.315242857
		6:[f23<0.0694736615] yes=9,no=10,missing=10
			9:[f16<0.0274728388] yes=15,no=16,missing=16
				15:[f3<0.297199994] yes=27,no=28,missing=28
					27:leaf=-0.0464282967
					28:leaf=-0.322223753
				16:[f2<0.0390000008] yes=29,no=30,missing=30
					29:leaf=-0.0911864936
					30:leaf=0.211932942
			10:[f7<0.0199999996] yes=17,no=18,missing=18
				17:[f28<0.0344732292] yes=31,no=32,missing=32
					31:leaf=0.31522733
					32:leaf=-0.0418161228
				18:[f3<0.297199994] yes=33,no=34,missing=34
					33:leaf=0.135723084
					34:leaf=-0.481711566
booster[8]:
0:[f37<0.0194734931] yes=1,no=2,missing=2
	1:leaf=-0.305336535
	2:[f3<0.207399994] yes=3,no=4,missing=4
		3:[f20<0.396227121] yes=5,no=6,missing=6
			5:[f22<0.115178607] yes=9,no=10,missing=10
				9:[f23<0.085720107] yes=17,no=18,missing=18
					17:leaf=0.0902090371
					18:leaf=-0.296392143
				10:[f17<0.0254684854] yes=19,no=20,missing=20
					19:leaf=0.0227959491
					20:leaf=-0.484562457
			6:[f2<0.374599993] yes=11,no=12,missing=12
				11:[f6<0.130600005] yes=21,no=22,missing=22
					21:leaf=-0.353852451
					22:leaf=0.0861618295
				12:[f12<0.0157501493] yes=23,no=24,missing=24
					23:leaf=-0.247032419
					24:leaf=0.288982183
		4:[f2<0.059799999] yes=7,no=8,missing=8
			7:[f40<75] yes=13,no=14,missing=14
				13:[f4<0.382400006] yes=25,no=26,missing=26
					25:leaf=-0.357444674
					26:leaf=-0.00444472348
				14:leaf=0.215765685
			8:[f32<0.0283493195] yes=15,no=16,missing=16
				15:[f6<0.0839999989] yes=27,no=28,missing=28
					27:leaf=0.26473701
					28:leaf=-0.116431981
				16:[f12<0.0276806504] yes=29,no=30,missing=30
					29:leaf=-0.510823846
					30:leaf=0.220969439
booster[9]:
0:[f37<0.0294352062] yes=1,no=2,missing=2
	1:[f35<0.133374795] yes=3,no=4,missing=4
		3:leaf=-0.302739799
		4:[f0<0.865800023] yes=7,no=8,missing=8
			7:leaf=-0.0379570797
			8:leaf=0.194796711
	2:[f40<15] yes=5,no=6,missing=6
		5:[f27<0.0248652715] yes=9,no=10,missing=10
			9:[f22<0.0883286074] yes=13,no=14,missing=14
				13:[f10<0.0143456217] yes=21,no=22,missing=22
					21:leaf=0.160266504
					22:leaf=-0.268776625
				14:[f11<0.0159539934] yes=23,no=24,missing=24
					23:leaf=-0.210636333
					24:leaf=0.204125866
			10:[f12<0.0287214499] yes=15,no=16,missing=16
				15:[f13<0.0271522216] yes=25,no=26,missing=26
					25:leaf=-0.285069525
					26:leaf=-0.00284592691
				16:[f16<0.0284168199] yes=27,no=28,missing=28
					27:leaf=-0.464546502
					28:leaf=-0.122097261
		6:[f3<0.0456000008] yes=11,no=12,missing=12
			11:[f28<0.0328495316] yes=17,no=18,missing=18
				17:leaf=-0.299031556
				18:leaf=0.0174610484
			12:[f38<695187264] yes=19,no=20,missing=20
				19:[f8<0.00760000013] yes=29,no=30,missing=30
					29:leaf=-0.131524041
					30:leaf=0.188803434
				20:[f13<0.0230643712] yes=31,no=32,missing=32
					31:leaf=-0.0395378061
					32:leaf=0.296148956
booster[10]:
0:[f37<0.0194734931] yes=1,no=2,missing=2
	1:leaf=-0.293859303
	2:[f3<0.231999993] yes=3,no=4,missing=4
		3:[f32<0.0054093292] yes=5,no=6,missing=6
			5:[f35<0.154507354] yes=9,no=10,missing=10
				9:[f0<0.336600006] yes=17,no=18,missing=18
					17:leaf=-0.179811478
					18:leaf=0.0626032129
				10:[f20<0.311595291] yes=19,no=20,missing=20
					19:leaf=0.305028498
					20:leaf=0.00748512475
			6:[f40<121] yes=11,no=12,missing=12
				11:[f1<0.217399999] yes=21,no=22,missing=22
					21:leaf=-0.1839239
					22:leaf=0.0426735878
				12:[f5<0.166600004] yes=23,no=24,missing=24
					23:leaf=-0.231782958
					24:leaf=0.247141093
		4:[f7<0.0197999999] yes=7,no=8,missing=8
			7:[f23<0.0694736615] yes=13,no=14,missing=14
				13:[f16<0.0264025256] yes=25,no=26,missing=26
					25:leaf=-0.233113229
					26:leaf=0.106446408
				14:[f38<9.82109451] yes=27,no=28,missing=28
					27:leaf=-0.0788355544
					28:leaf=0.30217889
			8:[f12<0.0262192562] yes=15,no=16,missing=16
				15:[f13<0.0266650729] yes=29,no=30,missing=30
					29:leaf=-0.106503561
					30:leaf=-0.411564797
				16:[f4<0.157600001] yes=31,no=32,missing=32
					31:leaf=-0.258140534
					32:leaf=0.217635527
booster[11]:
0:[f37<0.0294352062] yes=1,no=2,missing=2
	1:[f35<0.133374795] yes=3,no=4,missing=4
		3:leaf=-0.290678114
		4:leaf=0.082437858
	2:[f39<4.11888313] yes=5,no=6,missing=6
		5:[f38<2.25348147e+09] yes=7,no=8,missing=8
			7:[f4<0.151800007] yes=11,no=12,missing=12
				11:[f1<0.654600024] yes=19,no=20,missing=20
					19:leaf=-0.236622319
					20:leaf=0.125277132
				12:[f22<0.11698965] yes=21,no=22,missing=22
					21:leaf=0.166827112
					22:leaf=-0.381835103
			8:[f2<0.1752] yes=13,no=14,missing=14
				13:leaf=-0.317724228
				14:leaf=0.2957398
		6:[f32<0.0054093292] yes=9,no=10,missing=10
			9:[f11<0.0117758112] yes=15,no=16,missing=16
				15:[f0<0.999199986] yes=23,no=24,missing=24
					23:leaf=-0.231477797
					24:leaf=0.196990386
				16:[f33<196951408] yes=25,no=26,missing=26
					25:leaf=-0.0660972968
					26:leaf=0.296735734
			10:[f2<0.223800004] yes=17,no=18,missing=18
				17:[f20<1] yes=27,no=28,missing=28
					27:leaf=-0.253125042
					28:leaf=0.0402067117
				18:[f10<0.0198632423] yes=29,no=30,missing=30
					29:leaf=-0.314273506
					30:leaf=0.171925619
booster[12]:
0:[f37<0.0194734931] yes=1,no=2,missing=2
	1:leaf=-0.281584084
	2:[f3<0.103799999] yes=3,no=4,missing=4
		3:[f0<0.0957999974] yes=5,no=6,missing=6
			5:[f21<0.155602157] yes=9,no=10,missing=10
				9:[f3<0.0306000002] yes=17,no=18,missing=18
					17:leaf=-0.182811365
					18:leaf=0.117204055
				10:[f38<2.51460557e+09] yes=19,no=20,missing=20
					19:leaf=-0.337289393
					20:leaf=-0.0824442878
			6:[f13<0.0114625543] yes=11,no=12,missing=12
				11:[f2<0.00120000006] yes=21,no=22,missing=22
					21:leaf=-0.0103975516
					22:leaf=0.259947687
				12:[f11<0.0221045408] yes=23,no=24,missing=24
					23:leaf=-0.383417219
					24:leaf=0.0884501785
		4:[f40<15] yes=7,no=8,missing=8
			7:[f2<0.164199993] yes=13,no=14,missing=14
				13:[f32<0.0243664272] yes=25,no=26,missing=26
					25:leaf=-0.322466254
					26:leaf=0.0376948416
				14:[f9<0.00200000009] yes=27,no=28,missing=28
					27:leaf=0.192171276
					28:leaf=-0.202880397
			8:[f37<0.0928006694] yes=15,no=16,missing=16
				15:[f2<0.0157999992] yes=29,no=30,missing=30
					29:leaf=-0.108735628
					30:leaf=0.281663567
				16:[f15<0.0288544018] yes=31,no=32,missing=32
					31:leaf=0.130392149
					32:leaf=-0.206916973
booster[13]:
0:[f37<0.0194734931] yes=1,no=2,missing=2
	1:leaf=-0.274271607
	2:[f9<0.0137999998] yes=3,no=4,missing=4
		3:[f3<0.172999993] yes=5,no=6,missing=6
			5:[f13<0.0284688734] yes=9,no=10,missing=10
				9:[f3<0.0854000002] yes=13,no=14,missing=14
					13:leaf=-0.0179325454
					14:leaf=0.173891038
				10:[f8<0.0127999997] yes=15,no=16,missing=16
					15:leaf=-0.273478448
					16:leaf=0.0939880162
			6:[f40<15] yes=11,no=12,missing=12
				11:[f0<0.00939999986] yes=17,no=18,missing=18
					17:leaf=-0.135116681
					18:leaf=0.112527147
				12:[f1<0.0350000001] yes=19,no=20,missing=20
					19:leaf=0.0388398916
					20:leaf=0.249262676
		4:[f6<0.0697999969] yes=7,no=8,missing=8
			7:leaf=-0.313065201
			8:leaf=-0.0813481286
booster[14]:
0:[f37<0.0194734931] yes=1,no=2,missing=2
	1:leaf=-0.265817434
	2:[f8<0.0397999994] yes=3,no=4,missing=4
		3:[f3<0.162200004] yes=5,no=6,missing=6
			5:[f40<4] yes=9,no=10,missing=10
				9:[f10<0.0143456217] yes=13,no=14,missing=14
					13:leaf=0.132660002
					14:leaf=-0.0557264835
				10:[f40<129] yes=15,no=16,missing=16
					15:leaf=-0.242323294
					16:leaf=0.0869824961
			6:[f10<0.025468789] yes=11,no=12,missing=12
				11:[f13<0.0250606332] yes=17,no=18,missing=18
					17:leaf=-0.116383277
					18:leaf=0.176429927
				12:[f22<0.115794115] yes=19,no=20,missing=20
					19:leaf=0.0129142264
					20:leaf=-0.416065305
		4:[f30<0.0301509909] yes=7,no=8,missing=8
			7:leaf=-0.0672860742
			8:leaf=-0.265026867
booster[15]:
0:[f37<0.0294352062] yes=1,no=2,missing=2
	1:[f35<0.133374795] yes=3,no=4,missing=4
		3:leaf=-0.267462075
		4:leaf=0.0535358079
	2:[f21<0.196935385] yes=5,no=6,missing=6
		5:[f2<0.159199998] yes=7,no=8,missing=8
			7:[f10<0.0138654504] yes=11,no=12,missing=12
				11:[f25<0.0539389998] yes=17,no=18,missing=18
					17:leaf=0.133236587
					18:leaf=-0.218157798
				12:[f8<0.00800000038] yes=19,no=20,missing=20
					19:leaf=-0.20887816
					20:leaf=0.102699257
			8:[f22<0.0830040053] yes=13,no=14,missing=14
				13:leaf=-0.31439662
				14:[f9<0.00219999999] yes=21,no=22,missing=22
					21:leaf=0.229640514
					22:leaf=-0.113572985
		6:[f5<0.174400002] yes=9,no=10,missing=10
			9:[f2<0.0196000002] yes=15,no=16,missing=16
				15:leaf=-0.0656314939
				16:leaf=-0.284358501
			10:leaf=0.0253636129
booster[16]:
0:[f37<0.034072388] yes=1,no=2,missing=2
	1:[f35<0.143040463] yes=3,no=4,missing=4
		3:[f12<0.0225516688] yes=7,no=8,missing=8
			7:leaf=-0.271378547
			8:leaf=0.0442222506
		4:[f30<0.0176901743] yes=9,no=10,missing=10
			9:leaf=0.212347969
			10:leaf=-0.142553359
	2:[f8<0.00079999998] yes=5,no=6,missing=6
		5:[f32<0.00991264172] yes=11,no=12,missing=12
			11:[f37<0.0506863706] yes=15,no=16,missing=16
				15:[f0<0.0957999974] yes=23,no=24,missing=24
					23:leaf=-0.154203579
					24:leaf=0.128360599
				16:[f10<0.017498225] yes=25,no=26,missing=26
					25:leaf=-0.361302763
					26:leaf=-0.0572167821
			12:[f21<0.195368811] yes=17,no=18,missing=18
				17:[f1<0.0410000011] yes=27,no=28,missing=28
					27:leaf=0.037548285
					28:leaf=0.234637827
				18:leaf=-0.195367917
		6:[f4<0.157600001] yes=13,no=14,missing=14
			13:[f3<0.300000012] yes=19,no=20,missing=20
				19:leaf=-0.29592526
				20:leaf=-0.0647436902
			14:[f8<0.00439999998] yes=21,no=22,missing=22
				21:[f33<289505184] yes=29,no=30,missing=30
					29:leaf=-0.35295701
					30:leaf=0.139912277
				22:[f4<0.273799986] yes=31,no=32,missing=32
					31:leaf=0.17095381
					32:leaf=-0.104513019
booster[17]:
0:[f8<0.0397999994] yes=1,no=2,missing=2
	1:[f3<0.644400001] yes=3,no=4,missing=4
		3:[f3<0.231999993] yes=7,no=8,missing=8
			7:[f22<0.118005909] yes=9,no=10,missing=10
				9:[f9<0.00260000001] yes=13,no=14,missing=14
					13:leaf=-0.0355234295
					14:leaf=0.136020839
				10:[f21<0.162181854] yes=15,no=16,missing=16
					15:leaf=-0.0151211424
					16:leaf=-0.345619619
			8:[f7<0.0197999999] yes=11,no=12,missing=12
				11:[f24<0.0663171783] yes=17,no=18,missing=18
					17:leaf=0.260540575
					18:leaf=-0.100341581
				12:[f5<0.174400002] yes=19,no=20,missing=20
					19:leaf=-0.206545144
					20:leaf=0.156438634
		4:leaf=-0.230380774
	2:[f40<242] yes=5,no=6,missing=6
		5:leaf=-0.254785419
		6:leaf=-0.0647761524
booster[18]:
0:[f0<0.0102000004] yes=1,no=2,missing=2
	1:[f12<0.0138581442] yes=3,no=4,missing=4
		3:[f14<0.0260127652] yes=7,no=8,missing=8
			7:leaf=-0.261878103
			8:leaf=-0.0516460575
		4:[f0<0.00219999999] yes=9,no=10,missing=10
			9:[f3<0.0456000008] yes=15,no=16,missing=16
				15:[f12<0.0228353441] yes=21,no=22,missing=22
					21:leaf=-0.0612003617
					22:leaf=-0.200003251
				16:[f23<0.0715609789] yes=23,no=24,missing=24
					23:leaf=-0.0547131635
					24:leaf=0.227472529
			10:[f2<0.135199994] yes=17,no=18,missing=18
				17:[f26<0.0432648063] yes=25,no=26,missing=26
					25:leaf=-0.359637886
					26:leaf=-0.0731454939
				18:[f37<0.115136065] yes=27,no=28,missing=28
					27:leaf=0.130088389
					28:leaf=-0.182523608
	2:[f10<0.0096635716] yes=5,no=6,missing=6
		5:[f21<0.110782191] yes=11,no=12,missing=12
			11:leaf=-0.0708446205
			12:leaf=-0.264807284
		6:[f9<0.00980000012] yes=13,no=14,missing=14
			13:[f30<0.0322818533] yes=19,no=20,missing=20
				19:[f10<0.0184986237] yes=29,no=30,missing=30
					29:leaf=0.0326585621
					30:leaf=0.198540702
				20:[f5<0.166600004] yes=31,no=32,missing=32
					31:leaf=0.0402606726
					32:leaf=-0.245703727
			14:leaf=-0.22144106
booster[19]:
0:[f38<1.39867622e+09] yes=1,no=2,missing=2
	1:[f4<0.151800007] yes=3,no=4,missing=4
		3:[f2<0.279599994] yes=7,no=8,missing=8
			7:leaf=-0.284129798
			8:[f38<942419968] yes=15,no=16,missing=16
				15:leaf=-0.133557692
				16:leaf=0.0671565831
		4:[f14<0.0268554129] yes=9,no=10,missing=10
			9:[f2<0.0438000001] yes=17,no=18,missing=18
				17:leaf=-0.203603223
				18:[f27<0.0387415774] yes=25,no=26,missing=26
					25:leaf=0.147737846
					26:leaf=-0.148162499
			10:[f0<0.00219999999] yes=19,no=20,missing=20
				19:[f24<0.0655646846] yes=27,no=28,missing=28
					27:leaf=0.27163741
					28:leaf=0.0246569794
				20:[f11<0.0263292994] yes=29,no=30,missing=30
					29:leaf=-0.247215882
					30:leaf=0.0949130654
	2:[f6<0.0762000009] yes=5,no=6,missing=6
		5:[f22<0.0883286074] yes=11,no=12,missing=12
			11:[f32<0.00494274264] yes=21,no=22,missing=22
				21:[f10<0.0126278335] yes=31,no=32,missing=32
					31:leaf=0.241555423
					32:leaf=0.00205280841
				22:[f19<0.0222413111] yes=33,no=34,missing=34
					33:leaf=-0.191300213
					34:leaf=0.0850203261
			12:[f10<0.00932002347] yes=23,no=24,missing=24
				23:leaf=-0.214178532
				24:[f11<0.0164794251] yes=35,no=36,missing=36
					35:leaf=-0.171469733
					36:leaf=0.188931778
		6:[f30<0.031815853] yes=13,no=14,missing=14
			13:leaf=-0.259928674
			14:leaf=-0.00797415618
